14 21 -24 25 69 -4 5 76 34 
30 -58 10 77 -25 15 60 -3 -12 
-27 18 -32 -26 34 -1 -8 42 25 
-17 -13 19 -10 -15 5 -11 -27 -2 
14 -33 0 45 -17 -13 21 6 -10 
19 -9 25 14 1 5 9 9 17 

3 47 41 -22 22 29 13 -17 -35 
-4 -9 21 -31 0 -9 -19 -36 -37 
4 -6 -12 18 -9 2 -3 -17 9 
11 -13 9 3 14 -1 9 13 -17 
10 28 27 -6 18 10 -19 -1 -17 
6 13 15 3 -5 2 4 11 -20 

0 16 0 -17 14 -8 -19 -16 16 
21 7 -15 36 -9 -37 3 -27 -53 
-19 -1 23 17 32 53 27 72 66 
21 18 2 15 -11 -19 -7 -12 -9 
9 24 14 15 2 -14 14 9 1 
8 3 -2 23 -4 -21 -4 -34 -35 

43 69 28 13 34 -17 17 42 9 
14 35 -35 -3 38 1 5 34 6 
-20 4 74 6 -19 -4 -42 -39 -25 
3 -18 -15 5 16 -10 4 6 -3 
21 45 2 8 -13 4 11 22 -6 
-13 -11 -45 2 2 1 15 2 16 

32 63 10 6 30 -4 17 28 60 
12 7 8 11 16 -18 9 29 -9 
10 66 55 -15 -1 18 -2 -4 32 
-10 -20 -7 10 13 13 8 0 -14 
20 -18 -1 -6 -15 -11 -7 36 16 
-9 -35 5 6 -10 10 14 13 -12 

20 53 23 28 80 34 22 35 11 
-25 -24 25 1 -7 -18 -5 0 -85 
3 -6 -34 3 -15 -18 15 35 37 
8 25 44 -16 -3 14 -5 -17 -47 
7 -17 8 7 22 -5 18 13 0 
5 31 36 21 1 21 -9 -29 -44 

-42 36 42 2 14 9 32 -24 33 
20 59 -4 21 42 -5 9 51 -7 
-14 -17 89 -52 -9 47 -26 -13 41 
23 4 -28 1 23 -27 21 -3 -6 
-6 27 7 -20 15 -2 -18 13 -4 
18 17 -41 10 -5 -18 28 19 -26 

15 -18 -72 28 11 -32 24 16 -18 
-14 -28 -51 -13 -30 -45 -10 -14 -45 
-4 -39 5 -3 -25 -15 14 -34 -9 
8 3 19 -6 -3 -2 10 4 -4 
4 -5 -30 18 5 4 14 7 20 
15 0 4 4 9 10 14 19 -14 

-17 -53 -26 -29 -35 -60 11 -8 -19 
1 -24 -18 6 -29 22 -26 -29 -10 
7 -19 11 24 -27 -2 3 -18 7 
-5 -17 -31 14 18 0 29 19 -10 
21 -5 10 -8 -23 2 8 14 12 
2 -2 -10 20 13 0 25 12 7 

-6 -48 41 23 -42 3 25 -50 17 
-61 27 38 -53 25 22 -35 13 29 
32 -11 -19 10 -33 6 2 -28 -15 
-28 27 1 -27 19 -14 -6 16 -15 
-30 18 37 -25 19 13 -21 26 25 
1 17 12 -20 7 9 -7 25 -16 

-24 -38 7 -16 -35 -13 16 -30 -27 
10 5 22 -17 -40 20 6 -42 -3 
-8 -19 -4 -17 -18 -15 -5 -26 -21 
7 -3 4 -19 1 -11 -15 4 -2 
19 -7 37 25 6 38 24 -9 -9 
6 15 7 -12 -15 -7 4 17 12 

-49 22 30 -18 -3 -14 -5 46 -7 
7 -5 27 -13 -22 65 0 -25 61 
3 17 -13 -16 24 -37 6 -8 -24 
1 -10 6 -22 -11 0 0 -14 21 
-12 -11 31 1 -4 49 3 -3 37 
-22 12 17 -16 2 23 -13 17 28 

-13 -56 -8 -1 -15 0 42 -19 2 
10 -34 -17 26 -32 -1 -18 -54 -22 
-22 -45 -44 -18 -36 -18 17 13 -6 
-12 -13 6 13 -9 15 -6 8 10 
3 -11 29 25 7 16 23 3 20 
10 -3 -5 10 -32 -1 6 14 3 

25 31 27 -15 5 22 17 -2 -13 
4 -27 17 -10 5 19 -17 -32 7 
-18 12 -13 -24 -20 -8 6 -7 -26 
6 -9 4 22 11 -6 18 1 -22 
17 -13 25 2 21 6 -17 5 17 
0 -20 12 18 -15 7 4 2 9 

12 8 4 46 -2 -32 27 27 -19 
40 12 -5 37 0 -11 24 -33 -19 
10 4 -37 -14 -14 -46 2 -10 -28 
-4 -4 -9 9 7 -4 -26 -23 -5 
39 11 2 43 -6 9 47 -1 14 
28 11 -22 13 5 2 4 5 18 

52 16 -28 78 127 -12 72 15 31 
2 5 -19 20 39 -18 -31 20 8 
22 6 -47 23 -25 -19 33 0 -28 
-19 9 13 3 8 -4 -9 15 7 
6 -25 -34 46 43 -14 7 20 19 
-12 -1 -4 -20 6 8 -8 24 -21 

