-0.003168866
0.023159752
-0.024994107
-0.042457197
-0.0044292524
0.12649351
0.0429031
0.05414155
0.067176476
-0.041706756
-0.0062972987
0.024158707
0.007443412
0.017659456
-0.03229817
0.035624646
0.037455317
0.0013418343
-0.010106514
0.00201568
-0.03149304
0.035217244
0.041462347
0.046269145
-0.020434052
-0.013543418
0.08835845
0.0057058185
-0.03321801
0.10199101
0.07411901
-0.030133884
-0.0045383982
-0.040542472
0.030650672
-0.046205923
0.019300448
-0.016680442
-0.010891173
-0.046731476
-0.0023863846
-0.00029835044
-0.004037042
-0.037883773
-0.04469171
0.0260469
-0.03664944
-0.042373855
-0.028984811
0.028484372
-0.020581564
0.026298324
0.001369598
0.04073206
0.037357476
-0.040721375
-0.029399538
-0.0030415414
-0.014604639
0.0067451242
0.04861969
0.03158948
-0.04222676
-0.0072786296
0.012029207
-0.0045725876
-0.041684683
-0.034594417
-0.012514909
-0.0377345
0.03727413
0.0036438182
-0.03451258
0.04472476
-0.032665707
0.0029542847
-0.06352277
-0.013688577
0.0066885184
0.018149097
0.007335533
-0.056479044
0.04259522
0.059578672
0.06453433
-0.012766822
0.057866454
-0.030449426
-0.044764444
-0.0025883396
0.049293965
0.004235294
0.021733651
0.002525487
0.080181435
-0.024382217
0.052958913
-0.014073847
0.0512904
0.05793072
-0.028369766
0.028247936
-0.004526149
0.0020264525
0.0077091106
0.024258384
0.06693326
-0.011545164
0.054689363
0.059090886
0.052650325
-0.016668564
0.033301573
-0.008283024
0.0146363955
-0.021056237
0.002963324
0.012926371
-0.027174579
-0.03702988
