23 5 16 8 -8 13 1 -26 -5 10 43 6 -11 5 4 27 74 12 -18 -18 21 10 8 -21 -1 1 -1 6 -10 19 21 5 -23 -7 14 -9 14 -13 21 -31 8 11 -1 12 -11 -2 -34 10 14 -16 32 24 -1 32 -1 -7 24 1 -17 -2 14 -17 2 19 -17 -2 -14 2 -10 -16 11 15 30 -9 -71 13 -9 -23 7 -13 16 4 -3 13 -15 27 -33 2 -15 2 22 16 -3 6 -3 17 -8 57 42 27 10 -6 -10 1 2 39 11 1 -9 9 -7 16 22 14 -25 -12 -23 0 8 0 
6 16 3 0 3 23 -6 -19 -13 12 -16 -6 -1 -4 3 17 -14 4 19 12 -2 6 -3 23 9 13 14 -20 -11 13 18 -9 0 7 -4 -29 4 12 -65 -28 17 19 2 37 -4 17 7 -7 7 17 10 -2 26 29 -9 11 -11 -7 -4 23 43 -5 21 -17 6 20 12 -19 35 10 13 14 -5 11 -63 1 -6 0 -9 20 16 -34 22 25 30 6 12 19 38 -15 9 -5 26 -14 -6 -45 -20 -5 -9 34 -22 -30 -14 -14 -6 3 -11 10 54 25 36 -10 0 -19 -6 9 -2 -20 5 14 
-38 -6 3 14 30 36 -35 3 -2 7 -15 13 7 -2 -9 -5 -34 -10 27 -18 16 13 35 32 5 10 11 5 1 21 6 -11 44 9 9 -1 -1 14 -35 -34 8 3 -10 -24 -2 33 -20 8 -8 16 -6 8 9 14 -6 15 4 -16 -3 -14 -8 16 5 -1 -16 -13 -2 9 0 6 12 22 -22 13 -67 14 -14 18 10 28 10 -18 27 11 -19 -14 -9 5 19 24 -8 33 16 -10 16 -3 -12 12 9 13 18 9 21 10 -22 -5 -12 13 39 44 57 -13 -6 13 -7 -8 -1 -2 10 -22 
-9 16 -33 -2 7 -5 4 45 78 4 -5 14 -9 -15 15 -1 -2 9 -13 50 -11 4 -18 21 2 -19 19 15 -16 -23 27 14 -26 -8 16 11 -25 -12 -3 13 -1 32 7 7 -20 -33 -9 -11 11 -1 20 -23 1 -12 -6 -6 6 8 -3 20 -55 2 -21 15 -3 16 -7 -11 15 6 -25 -16 16 -4 68 13 20 -12 9 7 -5 -8 -3 -16 21 -17 14 -8 -14 -24 4 -1 -6 1 4 1 3 -14 -5 -46 -2 34 -15 6 -5 4 0 23 -15 10 -20 -11 14 14 7 1 -8 -12 2 -9 
-13 -2 -33 -12 -36 40 -6 -2 -21 10 16 -6 13 -16 -14 37 -25 15 10 3 -18 4 35 11 -16 3 11 4 2 27 -3 -8 13 -5 23 13 -6 5 -53 19 12 -15 4 28 6 12 11 -5 1 2 -18 8 28 9 2 -2 -16 15 -16 -19 18 8 22 -5 32 26 0 -16 -12 12 13 28 35 22 -61 2 -3 -15 -6 -39 -1 11 -36 21 -9 10 0 -9 6 5 12 -17 25 -12 -41 8 12 12 -1 50 -12 -13 -7 -1 2 23 -8 4 18 5 13 -7 5 27 19 7 9 -5 10 22 
1 -12 -1 -17 13 3 10 -3 -2 0 7 7 -13 10 3 -13 -11 -9 2 -12 3 -19 -11 -16 6 -6 -2 -2 -13 4 -9 -7 -1 7 -12 0 -2 8 -16 -9 -5 10 -10 -2 -18 -8 -15 -17 -3 3 4 -14 -11 6 -16 1 -5 -11 15 -14 -18 -9 -10 13 -10 -2 -5 10 1 -13 7 8 0 -18 -12 -10 15 -10 9 -14 4 -13 3 -17 10 -16 1 13 6 10 -6 -11 13 14 15 14 -7 -13 -4 4 12 -5 -15 -12 12 11 -3 6 -3 -2 -14 -10 0 -9 -1 9 -12 16 -5 11 
8 3 1 -10 14 -11 2 -4 4 -6 -27 14 -4 3 -5 5 -31 4 1 -6 8 17 -12 21 7 15 -3 -11 4 9 -9 -8 -8 -16 -22 16 -29 4 -32 -1 4 12 5 -4 -12 7 -10 4 12 -11 -36 -19 6 2 -7 11 -4 3 5 -1 6 11 1 -10 -21 -13 -12 12 -10 -3 -11 -19 18 -6 13 -7 14 -5 2 -9 -16 -9 -3 -3 -11 -4 -3 9 -3 15 4 -3 11 5 -18 10 12 3 11 -3 -4 -5 15 5 -10 21 11 -12 -14 -7 12 8 -24 -13 -11 8 -17 -13 13 6 
-18 -3 20 -15 -25 -28 -15 -5 -44 -4 -28 -7 -7 -10 -13 -4 -15 -15 -8 -15 15 -10 3 -22 6 -6 3 16 7 1 11 -6 19 -16 -5 18 20 11 34 -14 44 9 3 10 8 16 -10 -6 -1 2 10 20 15 -12 7 5 16 -1 13 23 4 28 36 7 -19 -19 7 35 3 14 -4 -23 -23 -5 -32 -9 23 21 11 10 2 12 40 12 -1 9 8 -1 31 -39 15 42 1 -12 41 -56 -9 -25 -21 -19 -2 -28 24 -10 7 11 -27 -27 11 -7 -7 -12 11 -5 -1 -10 4 10 17 -3 
1 5 -11 5 -25 -51 48 5 -19 -15 -14 3 19 5 -13 25 -14 0 11 1 6 -16 17 -18 11 -2 -10 -2 15 -27 -9 -5 25 -10 16 12 35 0 16 -16 12 10 13 -6 -23 8 2 -4 13 -11 -12 34 12 15 12 19 26 -13 20 4 32 -3 42 11 27 -5 -14 13 -55 -11 18 -18 -20 -3 50 2 11 6 7 -31 -8 -1 -8 13 15 -23 14 -9 47 -24 6 2 16 12 12 -46 -11 -42 18 -26 10 -31 8 8 -14 5 -39 -21 14 1 -36 -16 9 -12 -6 0 6 -12 4 -9 
-12 12 62 -1 0 -5 -14 -24 -28 -12 17 14 18 -15 6 -5 21 -11 25 -2 -10 13 -11 -1 5 6 -7 0 7 -1 -11 -6 -25 -6 -5 -13 7 8 34 38 45 11 12 27 29 -9 -15 10 4 6 -5 -6 -4 29 17 13 14 2 26 -9 -4 -2 26 28 -8 -19 -15 1 1 -6 -18 -2 -20 30 -53 -5 -10 -10 8 16 -6 35 -2 26 -17 6 -17 -8 -4 45 -18 -26 10 6 -24 47 -15 -9 -11 4 14 16 33 8 2 27 34 4 -48 -26 -22 8 5 18 -11 4 25 4 -8 20 
1 0 26 -4 -14 -57 -33 18 -35 -13 -70 -3 -12 -9 13 15 -37 4 -14 -13 19 -29 3 1 -11 21 17 22 -9 -38 -3 6 11 14 -22 28 -20 1 22 1 23 1 -6 4 -7 11 21 -10 0 2 -25 -3 -18 19 3 6 13 3 14 28 -40 23 22 3 -30 -6 -6 22 5 -4 26 -25 -25 18 19 -12 7 31 -3 -10 9 16 29 -9 7 1 22 8 -10 6 4 -2 15 -14 -20 10 10 -46 9 3 -5 21 16 13 10 -26 -6 0 -6 -1 -23 2 -1 -5 5 9 13 17 -5 15 
3 0 -12 -14 -24 -16 10 -15 -7 -14 -3 -5 2 5 13 -11 -15 -2 7 18 -2 -22 12 -1 3 34 8 -2 11 -3 15 -1 -1 2 30 31 -6 -1 11 13 26 -24 -6 27 18 -59 22 12 -6 16 -18 -16 5 12 8 17 -6 21 22 8 23 26 25 11 39 -4 16 21 -23 -12 -24 20 6 -14 69 -8 7 3 -3 -1 -9 40 -21 -6 -16 37 7 12 6 12 -18 -29 12 4 -14 33 34 -31 6 -7 -5 -23 10 -4 13 4 9 -21 -56 -17 -27 8 2 15 8 9 -6 -7 -11 9 
45 15 17 5 14 55 12 24 17 16 23 11 -6 13 -2 -39 37 -16 17 36 -10 8 9 46 -14 -7 15 4 2 19 16 8 -44 -8 -1 9 -7 0 -14 26 1 24 -15 -15 -14 10 4 -9 17 25 -11 -22 12 -12 16 24 -2 10 5 0 -29 -16 20 -8 -54 3 14 -15 1 5 -23 18 21 20 -24 15 -13 -10 -6 -28 9 12 -32 6 5 -35 -9 -13 -14 -23 -7 -28 3 -9 9 24 -8 -9 5 11 10 53 -15 12 -20 36 53 11 -11 2 12 -14 -4 -9 20 -7 29 2 -11 3 
-21 12 -15 -9 -6 -63 17 12 6 5 -36 -2 0 11 -4 37 -56 8 -1 -29 23 -24 14 -2 -16 -15 5 13 -7 9 -16 7 55 -4 22 -4 39 -11 8 -35 -19 -20 -14 -13 -6 13 2 -12 -5 -15 8 30 -13 -6 -11 -6 7 20 -1 7 52 24 -6 2 26 -16 -14 9 -46 -5 4 2 0 6 59 16 -5 3 2 33 -3 9 5 15 9 -31 -13 -12 14 13 -6 -5 -5 -15 23 -2 -12 16 -4 -26 3 -17 -9 5 -9 2 -12 11 32 32 -46 -16 2 6 16 16 -21 5 -6 -19 
-47 -5 -22 -14 -9 40 -13 -2 8 4 -29 -1 -9 -7 -12 10 -19 8 -24 -45 2 -7 20 11 -9 0 23 16 -2 23 13 13 36 15 2 7 -26 -4 -36 -70 -12 18 -7 -23 11 4 -20 1 14 -29 6 14 22 22 6 15 -15 -10 -19 -17 -46 7 -2 0 -17 16 1 -13 -2 13 2 -3 10 25 -68 9 -3 -26 -16 -11 -15 8 12 17 -12 -3 -14 18 20 -1 27 32 11 4 17 11 11 14 26 44 27 -8 -21 -14 22 30 3 20 5 20 41 13 -12 8 -4 -12 -29 2 -11 -8 
19 3 -52 -1 -24 20 26 1 6 -7 12 2 0 -11 17 24 -37 6 -2 11 21 9 24 19 -15 6 13 -3 -15 1 9 -3 9 11 19 24 -14 10 -49 -28 -6 -17 -3 5 -28 3 -1 5 10 8 16 23 12 24 9 -16 -22 25 -18 16 -2 -9 -6 17 2 17 -16 -23 -3 4 10 -7 35 14 -36 14 -1 -28 2 -18 -6 -1 10 -10 31 22 11 12 21 -100 31 -12 2 16 -11 -49 6 -10 27 25 -26 -42 -10 -7 10 33 2 16 37 44 25 -11 22 8 -11 0 9 16 -3 -41 
-34 -20 5 11 -21 20 -2 -1 10 0 -6 12 -9 15 5 15 13 6 1 7 -11 -14 4 -3 12 -12 16 -16 6 14 -4 -16 10 9 -17 -18 19 17 -31 8 -2 -1 -14 -11 8 10 16 13 -2 -13 -5 -7 -6 -11 15 -9 -7 2 -7 -13 -18 2 -12 -14 -9 0 -10 -18 -28 0 19 2 4 -11 5 7 -2 -14 13 -13 2 -7 -8 1 -16 -15 3 -7 -8 -15 -20 9 23 -1 11 -23 11 -8 10 5 5 14 -18 -14 -5 -5 5 -5 -2 -13 2 12 10 10 8 -7 -17 -17 0 -11 
-15 -7 8 -8 1 7 4 9 1 9 -11 -9 9 6 8 11 12 11 -18 10 0 -12 -12 -16 -8 -3 8 7 17 -4 4 8 4 -9 -14 -15 -2 14 -8 -5 13 -8 -9 2 -11 -5 3 -17 5 -12 -7 9 8 -4 0 -12 13 -5 -3 10 -19 -1 -14 -14 -9 1 -11 0 -8 5 -3 -16 -9 0 12 17 -14 -2 -9 -3 -2 -16 -12 6 -18 6 -12 -4 -17 14 14 13 12 -13 13 -9 -16 -9 14 -11 2 -9 14 -6 13 13 -5 -17 -13 11 -13 10 1 -18 -17 -4 -12 15 5 7 
1 4 -13 16 -16 5 12 11 -15 10 14 10 -15 -8 7 11 -26 8 9 9 11 1 18 0 -4 -11 -4 2 -4 2 -10 6 -2 15 8 -18 -12 0 5 0 8 -16 12 2 4 13 17 6 -11 -7 -15 10 0 -4 4 13 14 16 -16 -4 25 -11 -16 -1 5 6 3 -6 -11 0 -9 0 0 -2 -8 13 -18 -17 4 1 -14 -4 -12 10 5 10 -13 1 -5 4 20 0 -7 7 -7 -18 -3 8 -11 -13 1 -9 1 5 -6 18 5 -6 -1 -11 -11 -5 13 21 -17 -10 -14 4 -16 7 
10 9 2 -7 -31 -4 -36 -16 -3 -14 -11 4 23 10 12 20 -6 1 -7 8 -14 -7 -1 2 12 24 46 9 -15 27 19 -3 9 11 10 40 -4 -12 -43 33 2 -21 -7 11 -1 20 50 -12 13 15 23 -9 -6 20 9 -2 -13 28 9 -13 -18 3 -22 -6 -25 20 12 20 -4 15 6 19 36 5 -35 -8 27 2 13 8 6 33 21 0 -3 -7 29 0 -24 -45 32 4 25 0 24 -18 17 9 13 32 9 6 -16 10 37 17 -7 -32 83 10 35 -9 9 27 44 3 -2 -8 3 0 
43 18 37 17 5 -40 -36 2 -22 6 21 4 21 -5 7 -8 56 16 -11 -11 4 -52 -42 -18 -2 -8 18 11 3 8 23 0 -28 -11 3 11 12 1 19 25 36 -3 -7 35 -13 -17 28 13 10 27 6 -19 6 10 5 19 30 33 -14 -4 11 15 30 0 -60 7 3 0 21 -1 -8 10 -2 -5 -46 -7 17 -29 11 11 4 -14 -11 -11 15 20 2 2 -16 -72 18 22 -11 -10 -3 -7 -4 -49 -12 1 21 -12 -25 3 10 -12 -16 -10 -7 -44 -63 -18 15 4 14 -3 22 -11 3 13 
31 -9 27 -12 19 2 -46 33 -8 -10 -10 -8 -12 5 -17 -26 15 10 1 -16 1 -25 -21 16 2 4 5 21 -15 14 7 8 1 -14 -22 17 -16 6 19 -20 21 16 -9 5 13 21 -16 1 16 16 -9 2 5 -2 -14 19 37 -8 0 4 -8 7 8 28 -67 -5 -11 12 -10 0 -15 0 2 12 -80 5 -24 -12 15 4 16 -6 36 21 10 14 5 5 -4 0 11 35 -22 -17 5 -17 -16 -49 10 2 9 -3 3 8 -9 26 8 -4 -25 -11 -51 14 11 14 -11 12 -14 -8 -3 -19 
31 21 40 -17 -13 -41 -58 33 -17 13 13 -9 4 9 -8 -20 -1 -1 -12 -20 26 -63 -18 -16 -7 -10 4 18 -17 -8 7 -8 -12 5 22 2 15 -11 37 -17 34 0 17 25 -16 -7 3 -5 -10 -5 14 25 10 15 2 5 35 28 -22 -3 -3 20 7 19 -52 -3 12 -10 -18 6 -36 15 24 1 -75 -11 -9 -60 -7 11 14 -19 22 -2 23 32 3 -11 -35 -68 23 35 -2 -4 0 8 -12 -33 26 -7 -6 -35 -8 -3 20 21 7 -16 -16 -6 -63 10 36 11 22 11 3 -3 0 -3 
1 9 68 -9 -12 -24 -96 11 -18 -15 15 14 13 -9 -14 7 5 -10 5 17 9 -65 -45 15 4 28 25 3 13 14 13 -14 -23 -12 11 15 -21 2 10 21 18 -14 -3 14 27 17 30 12 -18 21 9 -18 -1 18 -4 32 14 11 7 -15 -15 10 23 -5 -28 8 -3 12 17 15 -6 13 -18 -15 -62 8 -4 -2 5 3 -3 23 19 -1 13 2 -3 -4 -32 -23 10 25 -16 -10 12 13 -6 -39 -15 -9 20 6 -12 6 -16 -13 9 -39 -4 -35 -39 15 9 24 15 -16 24 -7 -6 9 
-1 8 -19 4 3 7 15 26 57 10 11 18 4 14 12 4 1 -4 -13 47 -25 13 1 24 10 -5 8 9 3 9 -5 9 -16 5 -14 -18 6 12 -22 39 -17 8 3 12 -9 -1 18 4 -11 33 8 -36 -19 16 11 3 -26 17 7 38 -24 -7 -30 -7 25 24 14 2 17 15 12 10 -14 -28 69 -3 8 -9 15 13 11 -1 -11 8 27 -28 0 -18 -18 -16 -13 3 -7 11 16 19 21 -38 -13 -18 6 45 -28 -8 -7 -25 14 -3 23 29 25 -16 -7 15 -6 10 16 1 6 10 
21 -8 9 13 13 -4 -21 0 1 -17 6 16 5 -11 -13 -6 18 17 -2 4 4 -4 8 8 -16 -11 -6 -12 16 4 10 -14 -14 -6 14 -12 3 15 0 6 3 -22 -16 23 8 5 -6 5 14 7 0 -9 -17 6 -3 5 5 -2 -18 18 15 13 1 -1 11 -15 7 15 0 17 3 -9 -13 1 -8 5 15 16 1 -13 -5 -2 -8 -17 19 -20 -9 -14 12 4 11 9 21 7 -7 -13 5 2 -9 15 -12 -19 12 -12 -11 -3 -10 -17 22 -8 22 1 -7 -14 -6 10 -13 -16 -16 -10 
20 -13 -1 -6 3 -5 5 20 4 -8 0 6 -4 7 3 -7 2 13 -14 3 -24 1 -5 -7 -2 -21 -12 3 10 -5 -1 8 -4 6 9 24 -11 -12 -21 10 -2 18 -9 19 -8 -24 -4 5 -12 5 -11 -2 -22 6 5 -20 -12 4 6 -1 -13 -1 15 -5 11 20 -2 2 -7 -13 3 -2 14 -4 -11 12 3 2 8 3 11 -6 -16 -15 7 1 12 -11 -4 37 3 -2 5 2 -10 17 -20 28 8 12 8 2 -5 13 4 18 1 -7 32 -4 -13 13 1 -4 4 -11 -6 11 9 12 
14 -19 -24 15 18 -16 20 9 5 0 -15 -3 6 -1 -11 -16 2 6 -11 -16 11 4 -19 -10 -15 1 5 9 2 -13 -3 -2 10 8 -12 -3 6 -13 -5 8 -6 0 -12 -25 9 -6 12 8 3 3 0 -17 10 17 -7 -6 -22 -9 -13 7 22 15 -10 5 0 12 -12 8 1 -14 -1 -2 2 2 1 -4 11 12 15 -10 -12 -2 1 5 6 13 4 0 -11 -3 -7 12 -8 4 -3 5 1 -15 -11 -9 -14 5 -7 -1 -8 -19 0 10 -16 3 27 2 5 -13 -8 11 -4 -3 9 -14 
-40 21 -7 13 -21 35 -14 -17 -10 -14 23 18 26 -9 14 45 11 4 8 27 -5 -12 -2 15 -17 12 -12 13 15 36 11 -8 -2 -3 17 9 -25 -9 -29 37 4 -6 12 37 33 -21 40 16 -3 -8 -13 -14 17 15 4 16 -16 23 -1 26 -13 -1 -2 -21 59 19 -18 14 33 3 27 26 -11 -10 -2 4 38 3 6 -5 8 30 -13 3 11 7 38 3 21 14 -9 -3 20 11 -16 -27 41 21 6 -7 -13 2 -15 14 42 -19 -5 -11 11 -4 33 17 -36 17 17 11 13 1 10 -6 
41 13 48 8 11 -4 32 29 24 4 28 -9 -11 2 15 -12 14 -6 5 21 -22 -8 -1 -1 -8 -16 17 19 0 -20 10 3 -21 -16 -11 9 10 3 8 12 -2 23 8 4 -11 15 -5 13 -15 -8 2 -13 -13 -8 -8 5 31 14 22 9 14 -6 19 23 -49 17 10 11 3 -4 5 7 23 0 -23 1 -27 -16 -3 -34 0 -6 -33 -2 9 -9 -1 14 -8 -26 1 -16 -12 -1 -33 5 -16 -46 8 8 -10 -3 -6 -8 -6 10 36 4 -44 1 -53 -10 21 5 -6 -14 16 -16 12 20 
3 11 -10 -11 0 -31 -6 7 -27 -9 -41 -12 9 -4 13 9 -75 0 4 -13 15 -29 21 2 -4 12 15 18 12 25 3 -15 26 -3 -13 25 -3 -1 -39 -10 -13 -19 -11 -16 15 15 21 8 -6 21 -1 22 -6 5 12 -6 9 12 2 0 41 9 26 -16 0 -4 2 8 -50 -3 22 1 -31 20 18 3 8 -1 -12 1 -1 4 -20 3 -13 -11 17 10 11 1 3 7 4 -4 1 29 6 -5 16 40 -1 -21 19 8 -6 51 -33 -12 6 1 3 -11 -16 19 0 -2 17 4 3 -4 
35 19 3 -7 2 39 -18 23 28 -11 -8 -5 21 7 5 -10 56 -16 2 25 17 -17 -27 18 10 -11 -1 16 -8 14 8 -13 -28 14 16 -6 -31 -6 10 4 20 19 -1 19 -15 -30 18 4 16 8 30 -31 1 10 15 -9 11 26 3 25 -51 -13 -7 0 -61 5 -5 -19 39 14 10 10 4 6 -43 3 1 -1 5 0 12 -25 12 -3 39 0 21 -13 12 -37 12 26 3 -16 -2 -52 0 -46 -9 -9 -21 16 8 4 9 -6 0 -3 -18 -10 13 14 15 -7 15 -7 -2 -16 3 -14 
-18 -6 -28 -16 -24 -24 43 -4 5 3 13 -10 15 11 -6 15 -23 6 34 18 -2 44 26 18 17 10 -19 17 4 -17 1 12 14 -1 12 -5 3 -15 -26 30 14 25 -4 -12 -7 -2 25 -15 1 -2 -13 17 0 0 8 7 16 13 34 5 9 7 40 9 41 -9 7 -1 0 11 25 -9 -27 20 80 1 1 37 -1 -5 12 30 -38 14 14 1 9 15 52 -19 -3 -57 15 13 -73 -36 17 -45 6 -7 1 -25 14 5 -13 3 3 21 1 4 20 -5 -17 -8 -1 9 15 8 10 10 
22 2 46 -10 -10 23 -23 24 -17 -11 -7 -8 15 4 5 -34 15 0 -8 6 17 10 11 23 -3 -13 5 8 14 -2 4 -1 -23 1 1 3 -21 -7 11 -9 28 5 12 -1 -14 17 12 10 14 -13 -4 15 14 -12 -8 11 -3 -3 1 -36 -17 -12 1 19 -48 16 -5 -13 19 -1 -11 15 1 13 -64 -7 -22 -2 8 -18 -2 -12 13 4 3 17 -2 6 8 6 19 -10 -4 -4 -10 -12 -19 -15 -7 30 26 13 3 -1 -21 45 44 9 -5 -15 -11 6 33 19 -16 -10 9 10 -7 -13 
3 -13 -16 15 10 6 -21 11 20 -13 6 14 23 15 8 -25 7 0 19 -17 -41 -5 -18 7 2 0 3 8 1 15 -3 1 3 -16 6 5 3 2 -44 1 -38 1 -13 -29 -1 22 5 -8 -7 16 6 -19 -18 -5 2 17 4 17 22 -7 -20 16 -9 -4 -16 -12 -17 28 0 5 25 -13 -24 4 72 -11 12 10 -3 46 2 12 1 17 11 -60 4 9 -28 -6 19 8 16 16 6 13 15 13 -23 -8 -7 39 -16 5 8 -12 -1 -2 50 -7 14 13 -2 -8 20 -5 15 -10 4 10 
8 4 -11 -7 5 -33 -9 1 -25 -16 7 7 -5 0 -6 14 3 -15 -25 -45 -8 -20 -27 -27 7 0 3 -6 2 5 13 4 15 2 14 1 29 10 12 -34 -16 -16 -12 -1 -15 21 1 15 -10 -7 21 10 -6 -12 -1 -18 6 19 13 25 26 22 -6 15 12 -15 -9 23 -1 13 15 14 -1 5 0 -5 27 -15 6 29 12 -6 34 -7 11 6 -13 -5 1 -20 16 17 0 7 42 -9 13 37 4 -10 -24 -30 5 14 14 -13 -68 6 45 8 -28 -3 -15 -15 3 11 3 -1 -14 -10 
21 -13 -9 5 -4 -28 27 12 3 -8 16 -12 -10 -14 10 -10 22 -10 5 1 -6 -14 -5 -22 -10 -8 -2 18 2 -10 0 -14 2 9 15 16 19 -1 43 28 12 3 -6 9 -18 -38 13 -4 7 -13 -3 27 -2 -21 1 11 31 19 25 1 42 16 26 -7 27 6 -16 -18 -49 1 -12 -17 21 10 90 -4 -6 -12 -15 -30 17 16 -46 -9 10 4 0 14 18 5 -19 1 -7 6 -17 9 10 -30 18 -30 -10 -23 0 7 17 0 -5 11 -41 -11 -67 9 13 10 12 -11 14 8 -2 -2 
1 -16 -7 -16 -12 3 -5 -14 4 2 15 9 -6 -7 -13 -11 -1 -11 -3 -5 2 -6 0 1 5 11 -2 -5 3 9 0 14 2 12 -6 2 -9 -5 2 -15 -7 3 14 4 -8 -15 -10 -13 3 6 -6 10 6 -11 5 -7 -8 -4 -15 6 -11 -16 -3 -17 -2 0 -9 -11 -14 8 14 -13 -3 12 5 -14 2 -17 14 9 6 0 -13 1 3 -11 -2 6 -10 2 7 -11 -16 7 -1 2 7 6 -12 11 -11 -8 -10 -14 4 -5 -4 2 2 -8 0 17 -17 16 5 6 9 -16 11 13 
17 18 -18 6 -14 53 7 -7 21 -12 24 0 -6 0 15 11 21 10 -9 15 -32 -15 10 12 -13 1 21 7 -8 41 31 10 -24 3 28 -4 -39 -5 -43 26 -6 21 11 11 -4 1 32 5 -2 -6 5 -21 20 5 15 -15 -14 24 -13 6 -12 12 7 -4 4 21 -18 -8 12 16 10 16 25 11 -20 -13 4 -27 10 -15 -10 28 -41 1 16 -18 -4 5 -23 -18 21 -24 33 -16 -12 23 2 26 19 36 8 25 -20 -5 -1 35 50 0 19 4 24 10 30 10 26 -7 -9 -10 10 13 
-20 -26 -3 5 27 52 -19 -26 14 4 21 -2 18 0 -4 -14 30 13 6 -8 -18 -8 7 41 12 -4 -15 -19 9 23 20 -11 -17 -15 14 -20 -5 11 -22 10 -33 0 10 -26 15 4 1 -9 7 -7 3 -29 -13 -4 -14 -12 -13 -3 1 -21 -25 4 -47 -12 -20 14 3 21 21 -3 4 24 4 3 -4 -3 17 -6 1 56 -11 -7 -6 28 -2 -21 10 -1 -39 5 15 16 10 -7 16 40 -5 40 8 35 31 64 -19 -6 -10 -12 26 -24 28 23 46 -10 -6 12 14 -13 18 4 -1 10 
1 21 -12 16 6 67 42 10 35 -3 -6 0 13 -4 -4 0 30 14 -14 28 5 50 17 30 -11 -16 3 -2 2 18 20 14 -19 13 10 12 -31 10 -22 3 -1 13 -5 13 -21 -9 2 6 15 27 20 7 -19 -14 -2 -1 2 4 9 14 -44 -18 -23 3 -16 9 12 -5 19 15 -7 12 11 3 -41 -8 2 30 -14 -32 3 -14 8 3 30 -4 12 -16 15 -43 -11 12 20 14 -18 -66 1 -40 -8 16 -16 8 -9 4 1 10 10 39 6 18 66 1 19 11 -10 8 11 2 8 -7 
-10 -8 -26 -14 8 45 -42 8 7 0 -15 6 20 13 6 15 -6 15 -12 -3 3 -12 -8 11 -11 7 21 5 -14 23 22 -12 26 -13 -4 18 4 4 -24 -7 -32 -4 -9 0 11 -12 -18 3 -15 -3 -5 21 5 9 7 -2 -19 17 -8 -10 -34 19 -26 -4 18 -7 -9 -1 10 -6 16 25 31 15 -28 -5 -4 -17 10 17 -5 9 49 8 -3 -29 10 5 -50 21 -7 -3 30 16 53 45 -1 42 24 0 8 31 14 -7 18 16 15 -10 22 52 61 9 6 -6 21 16 -18 -9 10 4 
4 22 16 1 0 8 -36 -3 15 13 -12 -4 2 14 -10 -5 17 -12 -1 6 31 0 -22 33 -15 18 3 0 -3 -9 4 -4 0 12 20 -9 -32 -14 3 14 32 7 3 -7 25 -29 1 -12 12 -12 -17 -32 -8 14 12 15 -5 -16 24 27 -52 19 0 -5 -18 -12 12 -13 38 8 -6 14 -20 1 0 -10 -16 -17 9 8 -16 -20 20 6 20 27 19 8 -7 10 -8 7 3 -16 -8 -26 14 -55 12 -34 -10 5 -5 11 3 27 27 31 -17 0 19 15 -22 16 -12 -9 2 -5 -16 -10 
5 14 -17 -9 32 18 64 11 15 -16 -12 -1 -9 9 -15 1 -27 14 35 28 5 72 39 9 -6 -10 -12 4 -6 -4 -8 -4 3 8 -1 14 -25 -5 20 10 -9 23 2 14 6 16 -18 16 0 9 -13 19 -17 -5 -4 17 -3 -5 9 23 -14 -5 -22 23 51 -30 6 8 19 11 5 -15 9 10 127 4 -18 23 -12 1 -9 21 19 13 -7 -35 -29 -17 -4 77 -9 -19 4 1 -29 -5 -24 37 -7 -16 8 28 36 -15 -10 -10 19 50 0 22 26 2 -19 10 2 9 15 11 1 23 
-26 -4 27 -3 -16 -7 -25 -26 -43 11 10 -16 20 -2 -5 -8 16 -13 -4 -30 19 -14 -15 -25 -16 28 0 9 -11 4 -7 3 -5 -17 2 12 4 16 54 9 33 8 8 19 36 -22 7 4 2 -21 24 -8 20 27 -5 18 3 2 -21 -28 -8 -6 19 16 -4 14 5 25 -7 12 -23 22 23 12 -72 5 10 -21 -14 24 -14 -8 21 -7 -13 41 -6 9 -18 24 -5 14 -13 12 8 22 -19 31 8 -14 26 -1 13 -3 26 23 17 -16 -31 -13 -26 15 22 19 -2 -14 -12 20 7 11 
-26 -12 29 14 25 32 -33 -21 -16 -1 1 -1 -3 -6 3 -13 20 2 25 -23 -23 -5 -10 -7 13 22 1 3 14 1 -6 -14 -39 -7 17 3 -13 17 -4 31 2 -3 7 -20 55 27 14 3 -14 21 -4 -10 7 -6 6 29 -9 -11 11 -3 -26 -3 -7 13 6 5 6 9 47 12 41 21 -44 12 -43 14 13 43 8 38 -9 25 29 33 -16 -4 2 -6 -22 54 -20 25 -9 1 22 26 2 26 -8 25 18 69 10 17 7 -2 -3 -7 8 0 41 7 -13 -3 -10 12 25 6 8 45 
10 -13 37 2 24 -16 36 9 7 -8 11 -7 12 -8 8 -20 6 -6 11 14 10 5 -15 -17 9 1 -4 21 0 -5 12 -14 -35 4 25 13 15 10 45 41 37 21 -5 -1 4 -28 20 15 -9 -8 -4 -21 -16 -12 7 9 32 -15 19 -4 7 -15 13 26 7 3 -10 -14 5 11 -2 11 2 -13 78 -11 1 -41 9 -34 -2 16 -46 -8 9 26 -6 -4 -20 31 -22 -13 -16 -1 -24 31 -1 -48 9 -20 -13 -11 -8 6 -16 15 31 5 -73 -23 -53 -1 -9 -3 10 16 19 2 10 -14 
-14 -17 -13 3 24 48 -38 16 39 0 -25 11 16 -14 13 -18 10 2 1 -1 -3 25 -40 5 3 6 14 17 14 20 4 12 12 9 9 6 -4 -3 10 28 -30 26 -2 -31 -4 -26 0 6 -15 1 11 -33 -37 11 15 7 -31 -6 9 13 -43 12 -58 3 -26 1 1 -27 27 -1 -6 -15 -11 -8 0 -2 -18 -6 -14 8 -2 -8 36 -3 18 -13 26 15 -56 -17 0 6 5 -7 42 -34 -16 7 -11 11 1 72 -3 -1 8 23 23 21 -18 42 47 -6 1 1 7 7 -10 14 5 -37 
-44 3 -28 17 -2 -19 -13 -25 6 -1 7 7 21 15 11 14 -11 -6 -7 7 12 10 -5 -15 -10 7 15 -4 15 8 19 6 34 0 24 16 20 13 -6 8 -12 -7 -4 11 25 -40 -19 -4 15 -23 12 2 -4 -6 -1 6 -2 12 11 33 17 1 -18 -9 72 0 3 24 -3 15 -3 -12 8 -7 59 -7 39 5 -9 27 -3 27 9 4 -1 -15 27 -11 3 26 -6 -6 17 8 40 19 39 37 15 -35 -4 2 -4 -3 21 -30 -22 -13 6 5 25 -6 -28 6 -4 6 -3 16 -3 -13 
-7 3 33 16 9 -8 -23 -2 0 -7 11 4 4 -17 -13 -16 7 -3 -16 14 -8 -18 -32 -25 4 22 11 -5 10 1 -3 -16 -15 13 23 18 9 16 36 12 26 -1 -8 11 21 -51 -3 -17 0 -20 -17 0 -7 21 -8 12 8 -20 -9 23 -38 22 14 7 15 -10 14 5 23 -12 -9 -10 2 14 51 -6 17 3 10 30 -5 -3 -12 9 -14 16 13 -18 -6 55 9 -2 -11 4 25 32 1 -17 17 -33 4 16 -7 -5 -8 -4 29 -8 -53 -33 -38 6 8 6 9 4 2 -13 10 -4 
-16 14 32 8 10 -39 -69 11 -1 -11 -10 12 -5 16 -16 -8 35 -13 7 -37 -16 -50 -38 -4 3 -9 -1 13 14 -19 3 16 -19 2 -1 -1 41 3 21 -22 -8 -19 7 21 -4 1 17 9 16 -5 31 5 20 1 5 -7 17 18 -19 8 24 7 -25 6 -26 9 14 21 6 9 -13 14 7 -18 -34 -13 26 -24 -15 46 11 -22 47 6 18 -24 -12 1 -31 -48 20 42 20 8 41 -4 0 29 18 -15 22 -15 -15 -3 22 -34 -36 -16 7 -10 -24 15 22 4 23 -10 -5 -4 4 -16 
-14 10 -11 -4 -13 18 -23 24 21 5 -14 17 -4 -7 -8 8 -40 3 -3 7 -1 -14 10 5 5 21 26 25 14 -17 15 15 8 17 -18 34 -10 9 -65 12 20 -6 -9 -2 5 14 37 -5 14 27 -11 -7 -7 -7 -9 -7 14 2 6 9 -21 16 -6 -6 -17 2 8 0 6 9 19 10 -31 -10 47 -3 24 30 -2 -3 -16 16 -9 14 14 -23 31 -8 21 -26 -11 -4 5 6 -8 -29 30 -42 -14 3 -23 13 -3 -13 -24 9 -10 9 2 21 7 3 16 22 -2 9 27 -13 6 -8 
3 9 7 -7 -12 -65 56 0 -6 -7 8 13 6 -6 -12 22 -7 -6 32 28 4 14 42 -16 -13 -19 -13 20 2 -34 -20 -13 13 13 -10 2 35 -9 2 -8 17 13 -3 15 -18 3 -2 10 10 0 -22 -2 5 -9 1 25 26 -7 21 2 43 8 39 1 24 3 -4 19 -34 7 9 -4 -34 7 99 -8 -14 25 -11 -9 6 -3 -23 -11 -9 -14 -10 -6 54 29 -17 -18 1 -8 -20 18 12 13 9 -25 15 3 9 -16 11 -1 -20 -4 15 -13 -44 -10 -9 6 8 -15 16 10 -4 28 
17 9 -11 15 -15 2 -1 7 -5 -8 -10 16 -14 6 -5 -8 -8 9 8 -1 16 -13 -17 -1 -11 -8 13 16 7 9 -14 3 7 -12 -3 -5 -3 9 3 -3 9 -19 9 9 -10 -6 14 -12 10 -1 -4 6 7 13 0 0 5 11 -11 -15 12 -11 -14 -10 9 -8 -14 10 -17 -4 -1 8 -17 -7 -19 -11 -13 -3 -4 6 -7 5 13 -4 7 6 -8 -10 4 -14 2 14 -3 -12 -5 5 -15 20 -8 -4 1 18 1 -3 7 -8 -6 -12 20 4 11 -16 11 -14 16 4 12 -17 13 -14 
-50 26 4 -3 22 -32 0 -9 -27 -2 -42 6 16 11 -5 2 -32 1 32 -31 6 4 36 15 17 0 -12 20 -2 -28 -14 7 40 1 -4 8 -2 16 -3 -29 0 16 -5 -13 21 29 -15 -15 -10 23 -5 5 6 17 -10 29 13 -8 41 -10 13 7 23 12 6 -3 4 22 4 4 22 1 -46 35 67 12 -5 52 9 36 17 22 15 42 5 -17 -4 0 33 67 -15 -1 -8 2 -7 -17 -12 18 -20 19 23 -3 31 14 -16 -11 -26 23 -9 -9 8 10 -14 -5 6 12 33 -9 4 29 
20 5 -35 5 -3 -32 37 24 -27 -16 -16 -10 10 -7 0 -3 -2 -13 -6 -24 -28 -12 45 4 -5 -10 12 6 2 8 -2 -9 37 10 -19 10 1 -15 5 -13 11 -6 0 16 -13 37 13 -12 -14 14 -4 18 6 5 3 -7 14 20 16 -18 52 -8 17 13 15 -2 4 6 -58 5 12 -13 -9 14 0 -5 0 8 -8 -30 -16 10 -16 -1 20 11 9 1 40 -10 21 -31 7 9 -39 -16 -23 -16 -15 8 -20 -23 17 3 -24 0 -7 5 11 -6 -11 -5 -2 16 0 4 18 1 14 11 
-33 30 8 -12 39 -30 32 39 34 1 -16 -9 6 10 11 17 5 -8 -5 13 -11 5 -24 -16 -13 -9 -14 -14 5 6 -25 -7 8 -3 12 20 15 5 35 -2 -14 18 -13 -5 3 -53 -16 -9 7 2 26 17 0 -10 -9 4 14 -11 -3 34 -30 -11 -11 41 24 -9 -16 -17 27 6 4 17 -13 6 56 7 8 28 9 37 14 -15 52 -23 29 -7 -42 3 -15 44 -16 -20 14 -4 -11 -55 -48 6 13 -47 -8 16 26 2 5 -55 5 40 -6 17 -28 -3 8 -19 26 10 8 -5 -12 21 
58 -14 -1 -1 21 -13 30 27 28 -5 21 10 17 -16 -17 22 16 5 9 13 -47 21 28 33 8 -31 19 11 5 7 6 0 11 4 -13 -12 16 3 -27 -5 -30 -2 -10 1 -34 51 8 11 -15 18 -9 -5 -3 10 6 1 -19 15 9 -2 16 -9 4 -20 -44 -3 17 -3 -24 -7 15 1 5 5 -11 -4 -11 -14 -13 10 9 -17 -37 -2 29 -48 15 -6 -3 -32 -7 -5 2 8 -22 -3 -20 -19 2 32 -24 18 6 -7 -14 -7 -12 12 68 22 21 -1 18 -8 -4 -1 14 -20 1 24 
-5 3 2 -1 28 3 -9 27 -3 -8 -27 7 -1 8 -6 -1 -22 -4 -9 -37 20 16 25 1 -1 -10 6 -7 10 0 29 16 -4 -14 10 -20 48 -8 9 -76 -12 -3 9 -15 5 17 -36 1 5 -8 3 22 17 5 2 22 21 -8 -11 -9 -9 8 -4 10 -47 -28 -11 9 -24 -8 -3 -22 -6 -2 18 16 -11 -8 16 28 -5 -17 12 20 -21 -11 -25 -11 4 -9 12 24 -11 15 31 71 -8 0 9 -3 17 -19 5 2 -13 1 19 -10 31 28 -21 -1 1 -3 5 -1 -32 5 -16 6 
23 17 22 -15 11 43 1 6 -2 13 16 -10 10 8 2 -16 76 3 -7 28 -13 -1 -6 16 -9 -10 -6 8 16 9 -6 -15 -38 -2 20 -12 -7 0 15 22 2 33 -9 1 9 -28 7 2 2 8 25 -15 0 -11 6 4 23 -8 14 27 -62 1 3 14 -8 17 0 -16 61 12 6 7 15 -7 -45 -6 -18 20 5 8 -8 2 -4 -6 16 1 3 0 -19 1 -15 15 -10 -13 6 -1 -2 -10 -13 8 -15 31 -6 15 3 15 33 21 -1 -24 -3 3 6 -6 11 -4 9 11 -3 31 
14 -3 34 -15 -6 36 4 47 5 -7 -14 0 8 -2 -15 -32 29 6 8 -40 -34 11 -9 26 9 -29 1 -4 3 36 -11 -9 16 15 -11 6 34 6 -21 -73 -15 4 -7 -10 -3 35 -47 -4 7 9 -1 28 6 -6 -1 6 -7 10 -10 -10 35 -34 -2 -1 -62 19 2 6 20 14 -10 5 -2 10 -38 -16 -41 -4 -9 -8 13 -26 36 16 -19 -34 2 6 -4 -2 -4 16 34 -16 47 28 -66 45 -14 27 25 3 -2 -12 -18 19 33 10 63 14 23 -2 38 -23 -3 15 -16 11 7 14 
17 14 72 -12 -5 -36 -86 10 -20 14 -9 12 8 -13 11 -21 25 -17 6 -27 13 -59 -23 -23 1 22 6 -1 14 -20 13 -9 -16 2 -9 1 -7 -1 43 28 12 -5 -8 8 -1 2 27 0 -7 17 17 -3 -6 -9 11 10 37 14 -4 18 17 -5 14 17 -37 20 -13 -1 9 -8 -5 0 -22 -5 -73 16 21 0 -18 2 -15 14 -12 2 6 18 5 -4 -9 -73 26 37 -11 15 18 -6 9 -36 9 -7 10 2 -4 -1 21 -3 4 -34 -28 -41 -66 12 13 16 19 16 24 -10 -6 -11 
-28 -9 3 -13 23 16 23 -40 -31 -7 6 0 2 -15 -3 22 14 -14 -1 -28 4 40 40 2 -6 8 -18 12 14 -10 5 3 31 -12 -8 -2 -11 11 -36 7 -15 1 -2 -13 13 29 5 13 11 5 2 18 18 18 12 14 -10 -4 20 -23 -6 12 -10 1 50 -6 -14 9 26 0 54 -15 -11 7 -4 -10 -10 57 -13 30 -16 3 22 32 15 -5 -9 14 38 39 12 15 21 -12 9 -23 -16 55 -22 15 -10 29 16 -11 -11 -38 -13 -2 45 18 66 11 -30 -13 -21 10 23 5 -7 37 
8 23 -11 -15 -38 -25 28 -2 -33 12 18 -10 -3 -4 -10 14 9 13 -22 -22 8 -22 6 -30 0 -2 17 -9 14 -7 7 12 12 14 -6 18 18 2 36 -5 9 -17 -5 33 3 -15 23 12 2 8 9 20 13 22 -11 -20 26 3 4 -9 39 -6 24 13 -6 4 -12 17 -40 -8 5 0 10 3 -46 15 15 -17 -3 -24 7 6 6 -1 30 33 9 -11 44 -99 24 -10 17 -7 -6 -61 -10 -7 14 -15 -4 -71 -10 6 5 -14 -24 -12 21 20 -43 -2 15 -14 22 12 14 -3 -17 -10 
54 8 1 -13 26 0 53 -12 -4 -1 43 -12 10 -8 0 26 70 -9 10 19 -20 26 10 1 14 -1 -11 11 10 4 4 6 -21 4 19 -4 35 9 32 0 8 25 12 12 17 -24 -5 14 12 -11 2 17 -8 17 4 -8 14 -20 21 -8 25 -15 36 15 24 6 3 2 6 -5 5 -3 37 -11 -34 -9 -16 -4 -3 -19 -17 11 -25 -2 -17 18 -24 -3 -3 42 -10 -33 -10 10 -22 38 -9 28 10 -12 13 10 -3 -18 28 24 44 -4 -34 5 -29 4 -6 15 -1 14 -11 19 -11 35 
-22 -3 -32 -8 -4 -15 7 -18 3 -4 15 0 22 -13 -2 25 -32 -12 3 13 14 -7 -20 1 8 31 2 -10 -17 -10 30 -5 31 -12 24 23 17 3 -10 31 1 4 17 15 -3 -18 -3 -14 -14 -9 5 -5 15 12 10 15 9 28 10 21 41 13 -1 -10 30 18 7 10 -20 16 -16 17 9 11 73 -13 55 -18 -3 9 -8 4 13 7 2 8 44 1 -3 -26 10 -13 16 -6 1 -3 39 11 -12 -28 -19 -22 -22 0 28 -22 -14 -20 36 11 -7 2 -16 11 13 -12 -5 19 6 -2 
28 4 53 2 2 20 -41 12 -3 10 11 -10 24 -1 3 6 50 -6 -6 -15 0 0 -13 -27 0 -1 4 -3 10 22 2 -1 -49 18 16 -22 5 -1 37 39 -22 -14 -5 3 5 12 -9 -4 -12 10 22 -26 -13 -19 -9 -7 -14 -18 30 10 6 -15 -29 -18 -2 -2 -10 -4 26 -12 -6 -13 -21 -51 39 1 -17 11 -7 47 11 5 -3 15 8 -31 -1 9 -45 -2 18 29 -8 12 45 26 18 31 -24 -8 2 66 -14 11 -7 -28 -8 -24 28 -6 9 17 12 3 -9 -13 -9 -13 -6 36 
-12 12 0 5 -9 -8 -42 -18 14 13 -9 16 14 5 -17 -12 -6 1 -7 6 -20 -26 -3 20 -13 17 9 16 9 15 23 -8 19 -17 14 27 -26 -9 -32 7 -2 -5 3 -18 37 3 -6 -7 2 -6 -18 -8 -5 -6 -7 17 -20 1 17 -11 -25 18 -8 -8 42 22 -5 -9 -17 -16 5 15 -30 9 44 16 -14 -10 5 17 -12 43 4 20 -31 -4 15 12 -19 14 13 -20 7 -1 14 62 -4 40 -1 10 41 22 3 4 -24 40 21 -14 -27 17 1 0 -3 26 27 7 6 8 16 -23 
-4 -2 -13 0 -7 32 9 -29 6 5 40 15 -10 -2 -18 13 20 -16 10 31 -18 24 -10 5 8 29 -13 -12 11 28 22 8 -45 15 25 -14 13 3 -4 31 3 -5 16 16 22 -17 5 11 -8 -6 5 -19 22 2 -4 2 9 -16 17 -13 9 9 -8 -9 43 2 -13 -5 9 -4 5 20 14 16 -30 -13 4 -3 -1 -5 9 27 -6 -5 -13 14 -18 -5 3 -6 -1 -42 23 -17 -14 35 5 22 26 6 8 3 5 -8 23 17 17 13 -10 12 29 -13 16 13 -4 16 3 17 12 22 
2 5 21 -17 -19 -25 4 -11 -32 -14 41 -8 16 4 13 19 47 17 10 8 -3 -15 23 -18 14 13 12 7 -3 3 7 1 -20 9 3 9 29 15 23 5 30 1 6 28 18 -10 27 10 6 28 24 -4 28 27 9 -10 7 24 0 14 49 11 35 -7 17 9 -13 5 12 15 12 20 10 -12 -31 2 24 23 4 -10 -11 -3 -23 8 2 36 16 13 14 -23 14 -7 15 0 -20 -24 -3 -10 -8 -9 -13 -8 -15 -10 20 -26 -31 -3 15 -45 -15 -4 11 7 9 2 9 7 -12 24 
-12 20 -17 -6 25 15 -15 -29 44 -9 -14 -14 -11 0 -5 19 -26 7 -6 31 23 -6 -11 14 -6 2 12 9 -11 -6 -13 -14 18 -17 -18 12 -32 -6 -40 24 2 24 -11 -27 15 -20 9 3 -4 11 4 -33 -5 -16 3 2 -1 -11 24 19 -50 5 -43 -12 13 6 5 -14 38 -5 28 -4 -14 19 37 -16 25 20 -3 9 -2 -2 31 18 8 -17 28 2 -2 15 -9 33 -11 14 36 -39 18 -13 -2 -34 -27 26 -1 1 13 -11 -4 11 10 25 32 -4 -33 11 13 8 13 7 2 -1 
-1 -9 -17 3 -33 29 12 10 -30 -11 -18 -10 2 8 14 10 -18 1 -4 -2 11 0 13 7 -17 18 17 16 -1 24 -19 7 47 8 20 14 0 -6 2 -23 16 4 9 4 -21 18 -6 -9 5 5 -10 23 12 17 -3 -16 4 -17 0 -11 30 -10 29 15 25 7 -1 -13 7 -14 3 -10 18 23 -52 13 -6 0 17 -26 -11 10 0 15 -7 18 -21 -9 46 7 31 -14 18 -11 -12 -34 -8 12 18 15 -24 -43 17 14 27 27 -7 29 5 0 29 12 0 2 -11 -16 -14 -8 16 14 
-10 2 35 -5 14 15 -6 -4 7 -17 -6 -4 3 -7 16 -6 -12 13 27 13 11 -2 25 29 -14 9 4 17 2 26 -14 -3 4 8 7 15 -4 0 -29 -10 27 21 7 -9 21 12 -9 -1 1 11 3 17 11 5 10 17 -6 2 2 -4 -5 -16 -1 25 -9 -12 9 5 -11 -8 18 -2 -32 10 -38 -8 6 19 8 -12 -9 11 -9 2 -19 -8 -17 -15 -18 1 -17 -11 -16 -13 -17 23 0 -6 7 14 16 -11 17 -11 -32 20 18 10 -24 8 17 -15 15 1 3 -14 2 19 -9 -4 
22 19 -6 -13 24 -15 36 5 14 12 7 6 17 -12 0 2 10 1 19 29 -14 22 23 15 15 -26 3 0 12 -22 -3 -14 39 11 -6 -2 1 -1 0 -4 -34 19 -8 -27 11 17 -23 13 0 -10 -2 -14 -12 -5 3 0 -14 -10 -9 19 30 -14 21 12 -4 5 16 20 -29 -12 14 -26 -18 -4 46 -16 -19 8 -16 -11 -9 -6 -24 1 -6 26 -14 12 8 84 -13 10 -17 11 -23 47 -5 23 -4 1 16 9 22 -11 -3 33 0 4 -53 19 11 13 -16 7 3 -3 9 8 0 16 
10 11 27 -6 16 -17 -26 13 12 13 18 -8 -18 5 8 15 3 0 25 -15 5 12 -7 17 -16 -23 16 -11 3 2 -7 -7 -8 12 0 -11 11 -7 -6 -26 16 -10 -6 22 -3 16 4 3 -6 14 3 16 -10 17 10 -14 -10 -3 -16 9 5 -20 -9 -14 -7 3 -12 12 -11 3 -3 -18 -16 15 -19 -13 0 31 -2 33 -16 -11 -7 8 20 -31 -17 -13 8 13 -2 -2 19 11 31 14 -25 14 9 29 11 -19 -6 -7 -29 -10 -13 1 23 -4 4 -3 -8 -21 6 -5 -1 5 -16 -1 
-6 6 14 11 -1 3 -27 -14 -37 12 4 -7 6 -15 9 37 -19 9 -16 -17 2 4 17 8 4 16 21 1 -8 13 22 4 -6 5 30 -7 34 -17 2 -18 13 -12 13 14 14 -8 -9 -11 12 2 13 1 6 5 -3 -7 -5 -3 9 -11 47 9 10 -12 16 20 -8 23 9 -6 25 3 25 11 -46 -9 17 11 -5 34 0 -8 18 21 -8 15 0 -2 -13 3 10 9 -5 15 32 22 -3 64 16 7 16 1 -20 16 11 -13 -1 -2 45 -14 10 -9 21 -5 21 5 -1 -3 0 0 
5 -10 -18 2 -29 18 17 13 28 -13 3 -17 19 -17 -16 16 -20 -4 6 18 -5 14 33 12 15 23 4 9 -1 4 20 4 -7 -17 15 -8 -3 12 -41 6 -16 -18 -16 6 -20 6 7 -17 8 26 17 -4 -7 26 11 13 -22 9 -9 -13 -6 -13 -9 -18 39 28 7 -9 -6 13 12 9 18 -12 12 -15 4 -4 12 -11 6 9 -20 11 11 -9 21 -11 27 -54 30 -22 26 -9 -18 0 19 7 6 9 -23 -12 -21 -15 16 30 -13 10 33 41 30 1 3 17 18 -10 10 -19 -6 28 
26 -7 47 12 16 -13 23 12 -20 -1 -13 15 2 12 9 -36 -7 -16 28 11 -20 -20 18 6 10 -15 7 -2 -4 -38 -5 4 12 -11 4 3 16 -1 37 -5 -3 6 0 -1 16 21 16 9 1 -29 -18 -2 9 -15 -12 -4 23 -20 -1 -19 34 -2 11 4 -13 -16 4 23 -14 12 -12 10 -16 4 15 -12 -2 7 4 -18 15 10 -51 -18 8 -20 -9 4 -26 26 -21 -14 -12 -13 11 74 -10 12 14 -3 7 19 12 10 -9 0 24 -18 -23 -13 -58 10 14 20 17 13 23 -3 1 28 
-21 -3 4 -11 4 -3 -2 7 23 -17 -25 0 -1 0 -15 -3 -30 2 -12 -17 38 -1 4 15 8 10 -10 19 2 16 5 -15 61 10 10 1 14 1 26 -17 13 -19 8 -4 18 -7 -10 11 -13 -7 -11 2 7 -2 7 8 -13 7 -14 21 -4 17 5 -6 2 -15 -9 18 -18 4 13 -8 -10 20 72 -12 16 -10 -8 23 -1 17 22 0 12 -3 -3 -7 11 -7 -19 23 -7 7 46 6 13 -9 0 -15 14 -20 26 -8 1 5 -22 -19 -5 10 -7 -4 1 2 8 16 3 4 2 -14 
3 7 4 -1 -4 -3 10 -4 -3 -7 -11 -12 -7 -6 1 9 -4 -11 -14 3 -1 -11 5 -16 -8 6 3 -12 15 -2 6 6 3 17 18 5 5 -5 1 -6 -18 -5 -1 15 8 -9 8 1 8 -9 6 11 9 3 8 -13 -8 -11 -10 -13 -4 -7 -3 -1 -13 14 -6 15 4 -9 10 11 10 -13 -5 -5 0 -8 16 -1 -5 17 -20 14 5 -16 10 2 -13 12 -12 -5 16 13 2 8 -10 -10 -4 -8 10 12 -15 -16 -8 -17 2 -11 0 23 19 10 -17 -9 -8 -7 -9 -7 -10 6 
-12 -18 -12 -13 4 7 -13 -1 -22 -16 -10 -9 -14 6 0 -8 -2 -9 -6 10 -16 15 -12 -23 3 6 -8 1 15 -12 -10 14 10 16 -3 2 -7 -14 14 -12 2 -12 -13 1 -2 15 -9 15 -1 -5 -9 -7 4 3 -14 -1 -3 -6 -5 -9 13 6 13 16 16 -16 -2 -5 1 17 -1 -15 11 -12 14 -9 12 -7 8 -3 -3 12 7 1 -6 -2 -11 -5 -1 20 -10 -13 14 -9 12 1 8 -12 17 -21 5 1 15 16 -15 -4 -10 14 3 -10 -13 -14 -4 12 18 -6 0 -7 12 -1 
-24 -16 -44 18 -27 14 36 -4 9 -3 14 0 -16 -12 14 54 -21 -7 -22 -18 13 29 24 -10 -4 -9 12 0 5 14 26 1 40 6 13 8 -30 9 -30 -23 -15 -43 0 -11 11 12 -15 1 -4 -10 -11 11 -14 9 -1 -20 -53 26 8 10 4 21 -36 -23 49 17 4 -7 -38 2 33 -10 -23 7 -4 17 -1 22 -11 5 12 13 -23 -11 -13 8 -11 -17 -13 14 7 -21 37 13 15 -30 30 29 27 20 -13 -23 15 -16 9 4 -21 6 74 41 59 -7 -19 -2 19 10 22 9 9 -43 
13 2 -18 12 -1 -2 10 4 11 3 9 10 -4 -14 -11 4 14 -15 10 8 24 -8 -8 0 10 -16 -3 -6 -2 -16 -10 -9 31 6 19 -1 -6 -13 13 6 4 -3 -15 6 -4 0 12 3 -6 -2 15 0 12 24 14 -5 -6 13 1 8 23 -24 -7 -11 -5 3 -11 -14 16 -14 10 -10 8 20 6 -11 -29 -16 9 -19 16 -20 -1 1 11 -18 -5 11 8 23 -7 18 -9 1 5 -13 19 -22 2 1 -49 -11 8 0 11 18 -14 6 -23 7 -3 -3 14 -12 -10 -16 -4 -10 -2 4 
-21 7 4 -14 6 -12 -23 11 8 -1 -7 11 16 -10 -9 -10 -4 -10 7 1 29 -4 9 10 -2 13 3 9 -15 24 11 -4 44 9 8 17 -16 -9 17 -13 6 -18 -17 -18 25 -32 -9 -1 3 -25 -16 14 -22 9 12 15 -15 -11 8 17 -8 30 6 4 4 -14 -14 -5 -20 13 -29 -12 17 21 76 -9 14 -11 -2 2 7 16 -35 3 -19 -3 22 8 1 10 12 -9 9 -15 6 16 21 -13 20 -4 22 -18 9 -3 -4 -3 6 1 -30 -9 -48 16 -13 4 29 -13 -25 -10 -4 -30 
