0.046394836
0.07654688
0.07945585
0.08919074
-0.032104608
-0.027110098
-0.04131785
0.07466239
0.08569418
-0.039591223
0.041251823
-0.06676928
0.12711431
0.03994479
-0.032727674
0.03957337
0.08126438
-0.06771832
-0.005391501
0.14456777
-0.03830977
0.022608573
0.05003757
-0.0022785473
0.117277525
0.042074185
-0.07974681
0.018851204
0.016736096
-0.04499802
0.036337513
0.09253146
0.004388594
-0.06330773
-0.045705933
-0.050197855
-0.09081397
-0.08647321
0.06861447
-0.011124558
0.043943956
0.06296926
0.11310325
-0.039603658
-0.057323918
0.06794621
-0.07418928
-0.016488215
0.0431193
0.050376095
0.011019081
-0.032438718
0.06772646
-0.0073986575
-0.0040665404
0.10643655
-0.019588506
0.07760225
-0.016732244
0.07688479
0.13375966
-0.037174676
-0.022638062
0.044484448
0.08999128
0.04946185
0.12943205
0.0668375
-0.09053407
0.0869526
0.08622877
0.035463177
-0.028429281
-0.02652506
-0.080904104
-0.004990838
0.113630764
-0.011755832
-0.00820776
-0.060822498
0.012411229
0.11816173
-0.029125823
-0.06888637
