-6 24 -16 15 -14 -13 -14 -31 -42 -26 -17 -28 16 -13 -53 -16 10 17 1 20 1 -20 -14 5 26 15 6 -12 5 -14 -10 11 -39 -28 27 28 -39 -5 14 29 11 14 -30 0 -15 8 -35 30 7 -12 24 -4 -11 20 -13 -25 10 24 -26 9 28 -5 29 -3 -4 9 40 -12 14 7 11 -40 -23 -33 36 15 18 7 -35 6 3 35 -35 -37 
27 -14 3 31 -26 -1 -13 9 15 -48 -69 -37 -50 41 34 24 -56 -6 -13 1 -19 12 30 -52 -33 -12 16 17 -29 -21 -48 5 -67 -7 -54 36 8 -12 -10 -33 -6 28 29 -13 18 -62 -10 42 21 2 25 -92 -33 -14 -47 -8 20 -38 51 -16 33 -26 -62 12 -6 11 -63 -31 -15 -20 42 4 -32 9 2 13 -2 -25 41 11 -4 16 14 33 
-60 18 18 8 12 -7 25 1 -14 -28 -7 -1 1 -1 35 23 20 2 -37 19 -25 -1 -12 -1 1 -27 -28 9 19 -42 21 12 -1 15 2 -33 -40 -4 16 18 24 19 14 -5 -6 -1 -37 29 -2 -6 -31 21 -43 -4 -5 -7 28 -12 -39 -13 -3 -21 4 -13 -42 7 -63 15 4 -18 26 19 13 -101 -6 3 20 -49 7 -8 12 47 -15 0 
6 20 -43 16 18 -11 -76 -2 26 -22 -77 11 22 -7 -27 29 -24 8 -3 13 4 -23 0 -23 1 -1 9 16 7 26 6 13 15 -6 -20 -9 29 -4 16 -49 29 -24 -38 -14 -24 -42 16 -49 -14 -22 -24 -2 17 -11 -32 28 -14 28 -33 1 -17 -16 -30 28 10 13 -52 -37 16 23 -63 26 -22 -95 -15 -3 26 -2 -23 5 -3 17 6 -8 
-19 25 0 -25 0 16 -23 24 26 -12 1 9 -47 33 -2 -11 -2 -14 4 16 14 4 9 14 -29 -25 -44 -20 6 -25 28 -7 -9 -20 2 32 7 1 -11 -38 -39 -9 -25 -37 20 -3 -15 -53 10 0 21 2 7 -1 10 16 -70 -22 19 -35 -63 24 4 21 -19 14 -52 -2 -10 21 -21 -1 -7 -27 -35 20 5 7 19 7 16 2 -5 7 
-47 7 -5 4 -46 -12 -8 9 16 5 -10 9 -20 -18 -81 -64 -49 14 -18 -76 -22 -31 -46 -91 15 -7 -31 5 25 -29 -59 21 16 -35 -10 -6 -1 -15 -75 -44 23 -77 29 3 -29 8 17 16 33 16 -47 8 12 2 19 -12 23 -58 -38 18 -74 -48 26 -57 -1 11 17 -57 -5 -3 47 -5 -10 5 -27 -21 -34 -19 26 -8 1 -48 2 -10 
5 -34 -24 23 -16 -4 6 16 -12 16 20 10 16 -40 -4 -20 -18 -4 -25 13 31 31 16 29 1 9 -11 10 1 19 -3 24 -14 17 2 -29 3 5 11 6 -3 -4 20 -36 23 -2 29 23 -13 20 5 4 -31 -14 -22 -31 -55 -17 -8 23 8 33 -41 -4 -6 3 24 2 3 1 -9 -35 2 -1 12 -3 -2 14 -12 -1 -11 -85 -13 1 
41 32 20 -75 3 -15 -5 12 4 25 -27 -54 11 -62 10 -67 -45 10 22 -79 -95 22 -90 -41 -58 8 -2 -5 -17 4 -18 11 -3 31 -33 -51 -54 3 -17 6 22 -60 7 -1 23 15 5 -95 -62 -3 -128 -53 -6 -5 12 0 5 -11 -2 19 36 -60 23 -88 21 -72 -31 -28 13 -2 -43 32 13 7 -5 -5 -40 11 -31 -13 -1 -17 1 -56 
20 -54 -17 -4 15 -8 -8 -61 -25 23 -70 35 2 4 7 -61 -38 13 -11 -9 -70 -59 -58 -30 -4 -3 33 -20 24 -30 9 -62 -6 -35 -8 -23 25 -10 15 15 -49 9 -20 1 31 7 34 -40 35 33 -59 -43 11 2 -6 -21 -15 -47 46 -5 -1 -73 2 -41 32 15 -9 35 44 -10 -37 9 4 -10 -5 20 2 39 6 -11 9 34 -9 26 
-49 -24 19 5 -73 6 19 -2 29 2 9 -28 30 37 -10 -26 -27 -14 -4 9 -52 16 -44 -18 0 -8 9 -22 -83 27 17 -33 12 6 3 -19 22 7 -62 -24 -2 3 -15 9 -67 -2 21 2 -52 -14 -9 17 22 -24 24 24 4 16 26 -13 25 -32 5 9 4 -24 -28 -4 -35 -66 -2 -14 24 22 5 -56 -53 32 12 -4 -13 -34 -47 1 
